"{"numInput":5,"numHidden":8,"numOutput":2,"inputWeights":{"rows":8,"cols":5,"data":[[-0.6037593499985663,-0.016948423674397084,0.42922750857638503,-0.43691830606945725,0.8582400995229826],[-0.2763487996349556,-0.46832321147416645,0.8887693433009858,-0.5615878790604363,-0.5998762583721766],[-0.24635626436418745,0.7200721641837324,0.2644902541854415,-0.808417831039205,-0.21374045756131155],[-0.8031063744676588,0.5243108391955689,0.9775673167707923,0.7801077120537365,-0.1320588572112773],[0.801241087925689,-0.38581193781420353,-0.4221637214532099,0.16756420392035443,0.7339867053386229],[0.5975312321823583,-0.05653874822435956,-0.05480716927381657,0.938130751771848,0.8607888967097947],[0.8732517255534202,-0.8383733023089777,-0.8156745596348229,-0.856408123187177,-0.29291260748751835],[-0.20204676558307533,0.04968404265148507,0.7298958252412224,0.701450091418482,-0.7954242807232381]]},"hiddenWeights":{"rows":2,"cols":8,"data":[[0.6618816402711252,-0.8253054587270534,0.912076048965095,-0.7930252648121838,0.3206778864596118,0.9837345008973131,0.1697440941863002,0.21034882736871463],[0.48085105130687644,0.18813091683797722,0.9611344985108441,0.8614018999414568,-0.49708602164648363,-0.6177782071265789,-0.15873837468635488,0.09330658750711507]]},"hiddenBias":{"rows":8,"cols":1,"data":[[-0.9388452189053162],[0.9883059242802381],[-0.1368126595921746],[-0.15816025151450042],[-0.2745521651402547],[-0.7688006333780382],[0.3895282814497456],[0.969262719475481]]},"outputBias":{"rows":2,"cols":1,"data":[[-0.6142391803785126],[-0.6342630321250327]]},"lr":0.1}"